digraph Tree {
node [shape=box] ;
0 [label="glu <= 144.5\nentropy = 0.944\nsamples = 537\nvalue = [194, 343]\nclass = Healthy"] ;
1 [label="bmi <= 26.45\nentropy = 0.8\nsamples = 412\nvalue = [100, 312]\nclass = Healthy"] ;
0 -> 1 [labeldistance=2.5, labelangle=45, headlabel="True"] ;
2 [label="age <= 53.5\nentropy = 0.187\nsamples = 105\nvalue = [3, 102]\nclass = Healthy"] ;
1 -> 2 ;
3 [label="dpf <= 0.675\nentropy = 0.085\nsamples = 94\nvalue = [1, 93]\nclass = Healthy"] ;
2 -> 3 ;
4 [label="entropy = 0.0\nsamples = 79\nvalue = [0, 79]\nclass = Healthy"] ;
3 -> 4 ;
5 [label="entropy = 0.353\nsamples = 15\nvalue = [1, 14]\nclass = Healthy"] ;
3 -> 5 ;
6 [label="dpf <= 0.343\nentropy = 0.684\nsamples = 11\nvalue = [2, 9]\nclass = Healthy"] ;
2 -> 6 ;
7 [label="entropy = 1.0\nsamples = 4\nvalue = [2, 2]\nclass = Diabetic"] ;
6 -> 7 ;
8 [label="entropy = 0.0\nsamples = 7\nvalue = [0, 7]\nclass = Healthy"] ;
6 -> 8 ;
9 [label="age <= 28.5\nentropy = 0.9\nsamples = 307\nvalue = [97, 210]\nclass = Healthy"] ;
1 -> 9 ;
10 [label="bmi <= 30.45\nentropy = 0.642\nsamples = 147\nvalue = [24, 123]\nclass = Healthy"] ;
9 -> 10 ;
11 [label="entropy = 0.187\nsamples = 35\nvalue = [1, 34]\nclass = Healthy"] ;
10 -> 11 ;
12 [label="entropy = 0.733\nsamples = 112\nvalue = [23, 89]\nclass = Healthy"] ;
10 -> 12 ;
13 [label="glu <= 107.5\nentropy = 0.994\nsamples = 160\nvalue = [73, 87]\nclass = Healthy"] ;
9 -> 13 ;
14 [label="entropy = 0.87\nsamples = 55\nvalue = [16, 39]\nclass = Healthy"] ;
13 -> 14 ;
15 [label="entropy = 0.995\nsamples = 105\nvalue = [57, 48]\nclass = Diabetic"] ;
13 -> 15 ;
16 [label="glu <= 166.5\nentropy = 0.808\nsamples = 125\nvalue = [94, 31]\nclass = Diabetic"] ;
0 -> 16 [labeldistance=2.5, labelangle=-45, headlabel="False"] ;
17 [label="dpf <= 0.331\nentropy = 0.949\nsamples = 68\nvalue = [43, 25]\nclass = Diabetic"] ;
16 -> 17 ;
18 [label="bp <= 63.0\nentropy = 0.985\nsamples = 28\nvalue = [12, 16]\nclass = Healthy"] ;
17 -> 18 ;
19 [label="entropy = 0.0\nsamples = 4\nvalue = [4, 0]\nclass = Diabetic"] ;
18 -> 19 ;
20 [label="entropy = 0.918\nsamples = 24\nvalue = [8, 16]\nclass = Healthy"] ;
18 -> 20 ;
21 [label="dpf <= 0.414\nentropy = 0.769\nsamples = 40\nvalue = [31, 9]\nclass = Diabetic"] ;
17 -> 21 ;
22 [label="entropy = 0.0\nsamples = 11\nvalue = [11, 0]\nclass = Diabetic"] ;
21 -> 22 ;
23 [label="entropy = 0.894\nsamples = 29\nvalue = [20, 9]\nclass = Diabetic"] ;
21 -> 23 ;
24 [label="age <= 57.5\nentropy = 0.485\nsamples = 57\nvalue = [51, 6]\nclass = Diabetic"] ;
16 -> 24 ;
25 [label="glu <= 188.5\nentropy = 0.332\nsamples = 49\nvalue = [46, 3]\nclass = Diabetic"] ;
24 -> 25 ;
26 [label="entropy = 0.0\nsamples = 37\nvalue = [37, 0]\nclass = Diabetic"] ;
25 -> 26 ;
27 [label="entropy = 0.811\nsamples = 12\nvalue = [9, 3]\nclass = Diabetic"] ;
25 -> 27 ;
28 [label="sft <= 33.0\nentropy = 0.954\nsamples = 8\nvalue = [5, 3]\nclass = Diabetic"] ;
24 -> 28 ;
29 [label="entropy = 0.971\nsamples = 5\nvalue = [2, 3]\nclass = Healthy"] ;
28 -> 29 ;
30 [label="entropy = 0.0\nsamples = 3\nvalue = [3, 0]\nclass = Diabetic"] ;
28 -> 30 ;
}